{"levels":[{"inputs":[0,0,0,0.032812471009117994,0.49151942475586696],"outputs":[1,0,0,1,1,0],"biases":[-0.24311506988254583,0.4366475244595136,-0.013622538982495158,-0.3516715507563516,-0.15686861315161232,0.16572041404379684],"weights":[[-0.5497981424508774,-0.07775445680173954,-0.22946810585741145,-0.18844944526957588,0.12148490630624534,0.2105091915913128],[-0.38667285065345197,0.5263700659206588,-0.3241200518537296,0.30579153926466535,-0.5707487625850828,-0.3363389848533187],[-0.2002556571920408,0.30305136501007823,-0.4563016444364055,-0.43604805088637166,-0.4209765610566977,-0.25133485052637355],[0.06817025933906792,0.23571258305380716,0.06191384415418558,0.20086569860332334,-0.27098323631648713,0.018292577898968185],[0.2194751520002894,0.1823909193273553,-0.3771377114867276,-0.5019619272136678,-0.24680458051005527,-0.13685118845437932]]},{"inputs":[1,0,0,1,1,0],"outputs":[1,1,1,0],"biases":[0.13938598104462807,-0.23342016846524277,0.046689285054829964,0.14413546198923466],"weights":[[-0.20158476834786454,0.7849011182318528,-0.16947085832589423,-0.3951362198905838],[0.19663921666105758,-0.2909957348709471,-0.020362510630928227,0.14475323503623622],[-0.06785668037945014,-0.15529781038656756,0.11449894409893702,-0.2051212471255664],[0.18354584817199537,-0.25277482210893876,0.12722806810840584,0.00611028856888049],[0.4139978888932865,-0.07632325759411629,0.1790342031498642,0.052310995093286655],[0.01768244149289977,-0.19262027830610381,0.185399948935862,-0.032813424782113895]]}]}